svm_type epsilon_svr
kernel_type rbf
gamma 0.5
nr_class 2
total_sv 45
rho -0.10932071541284857
probA 0.23104119747853977
SV
0.42824189856584383 1:7 2:3.2 
-1 1:4.8 2:3 
-1 1:5.4 2:3.4 
-1 1:5.1 2:3.4 
-0.94886512512356325 1:6 2:2.2 
-0.08999098650355021 1:4.4 2:3 
-1 1:5 2:3.2 
-0.27029222136644898 1:6.2 2:2.9 
-1 1:6.1 2:2.8 
1 1:5.6 2:2.7 
-1 1:5.7 2:3.8 
1 1:5.1 2:3.8 
0.55785604742610284 1:5.5 2:2.6 
-1 1:4.9 2:3.1 
-1 1:4.8 2:3 
-1 1:5.1 2:3.3 
1 1:4.8 2:3.4 
1 1:5.7 2:3 
1 1:6.3 2:3.3 
1 1:4.9 2:2.4 
-1 1:6 2:2.7 
1 1:5.7 2:2.8 
-1 1:5.5 2:3.5 
-1 1:6.1 2:2.8 
1 1:4.9 2:3.6 
1 1:5.7 2:2.9 
-1 1:5 2:3.3 
-1 1:4.9 2:3 
1 1:4.6 2:3.6 
1 1:5.6 2:3 
1 1:4.6 2:3.4 
1 1:5.1 2:2.5 
-1 1:4.9 2:3.1 
1 1:5.2 2:2.7 
1 1:5.4 2:3 
1 1:5 2:2.3 
-1 1:4.8 2:3.1 
-1 1:5 2:3 
1 1:5.6 2:3 
-0.97458819049326872 1:5.4 2:3.9 
-0.70236142250511568 1:5.5 2:4.2 
1 1:6 2:3.4 
-1 1:5.5 2:2.3 
1 1:5.6 2:2.9 
1 1:5.1 2:3.8 
