svm_type c_svc
kernel_type linear
nr_class 2
total_sv 16
rho 4.9472067243030118
label 1 -1
probA -2.450178852545263
probB -0.010679596108876564
nr_sv 8 8
SV
1 1:5.6 2:3 
0.16982260053826143 1:5.6 2:2.9 
1 1:4.9 2:2.4 
1 1:5.4 2:3 
1 1:5.9 2:3.2 
1 1:5.2 2:2.7 
1 1:5.1 2:2.5 
1 1:5.7 2:3 
-1 1:5.5 2:3.5 
-1 1:5.4 2:3.4 
-1 1:4.8 2:3 
-1 1:5 2:3 
-0.16982260053826143 1:4.9 2:3.1 
-1 1:4.8 2:3 
-1 1:4.5 2:2.3 
-1 1:5.7 2:3.8 
