svm_type c_svc
kernel_type linear
nr_class 2
total_sv 15
rho 3.6769390849118606
label 1 -1
probA -2.5324843037453366
probB -0.0096019436113852843
nr_sv 7 8
SV
1 1:4.9 2:2.4 
0.48442899948885731 1:5 2:2.3 
1 1:5.2 2:2.7 
1 1:5.6 2:2.9 
1 1:5.1 2:2.5 
1 1:5.6 2:3 
1 1:5.7 2:3 
-1 1:5 2:3 
-0.51327725340652897 1:4.9 2:3.1 
-1 1:5.4 2:3.4 
-1 1:4.8 2:3 
-0.095104112166535512 1:5.7 2:3.8 
-1 1:5.5 2:3.5 
-0.87604763391579288 1:4.9 2:3.1 
-1 1:4.5 2:2.3 
