svm_type c_svc
kernel_type rbf
gamma 0.5
nr_class 2
total_sv 9
rho 0.46439088483051277
label 1 -1
probA -2.2580827031615138
probB 0.23337009397872577
nr_sv 5 4
SV
4 1:4.9 2:2.4 
4 1:5.4 2:3 
4 1:5.9 2:3.2 
3.4840296362085739 1:5.2 2:2.7 
0.11723871705821598 1:7 2:3.2 
-3.6012683532667902 1:5.5 2:3.5 
-4 1:5.4 2:3.4 
-4 1:5 2:3 
-4 1:4.5 2:2.3 
