svm_type c_svc
kernel_type rbf
gamma 0.5
nr_class 2
total_sv 10
rho 0.37071165449283017
label 1 -1
probA -2.3876883404179781
probB 0.15926443928434161
nr_sv 6 4
SV
4 1:4.9 2:2.4 
4 1:5.2 2:2.7 
0.1832276703831813 1:5.1 2:2.5 
0.018408228507750906 1:7 2:3.2 
4 1:5.6 2:3 
1.3643803364248492 1:6.3 2:3.3 
-4 1:5 2:3 
-4 1:5.4 2:3.4 
-1.5660162353157816 1:5.5 2:3.5 
-4 1:4.5 2:2.3 
